digraph Tree {
node [shape=box, style="filled, rounded", color="black", fontname=helvetica] ;
edge [fontname=helvetica] ;
0 [label="X[4] <= 0.5\ngini = 0.47\nsamples = 562\nvalue = [562, 329]", fillcolor="#f4cbad"] ;
1 [label="X[1] <= 2.5\ngini = 0.4\nsamples = 195\nvalue = [88, 231]", fillcolor="#84c2ef"] ;
0 -> 1 [labeldistance=2.5, labelangle=45, headlabel="True"] ;
2 [label="X[1] <= 0.5\ngini = 0.37\nsamples = 181\nvalue = [72, 224]", fillcolor="#79bced"] ;
1 -> 2 ;
3 [label="X[0] <= 2.5\ngini = 0.32\nsamples = 108\nvalue = [36, 144]", fillcolor="#6ab6ec"] ;
2 -> 3 ;
4 [label="X[2] <= 0.5\ngini = 0.04\nsamples = 59\nvalue = [2, 95]", fillcolor="#3d9fe6"] ;
3 -> 4 ;
5 [label="gini = 0.05\nsamples = 43\nvalue = [2, 70]", fillcolor="#3fa0e6"] ;
4 -> 5 ;
6 [label="gini = 0.0\nsamples = 16\nvalue = [0, 25]", fillcolor="#399de5"] ;
4 -> 6 ;
7 [label="X[2] <= 3.5\ngini = 0.48\nsamples = 49\nvalue = [34, 49]", fillcolor="#c2e1f7"] ;
3 -> 7 ;
8 [label="gini = 0.47\nsamples = 48\nvalue = [31, 49]", fillcolor="#b6dbf5"] ;
7 -> 8 ;
9 [label="gini = 0.0\nsamples = 1\nvalue = [3, 0]", fillcolor="#e58139"] ;
7 -> 9 ;
10 [label="X[0] <= 2.5\ngini = 0.43\nsamples = 73\nvalue = [36, 80]", fillcolor="#92c9f1"] ;
2 -> 10 ;
11 [label="X[2] <= 1.5\ngini = 0.09\nsamples = 42\nvalue = [3, 61]", fillcolor="#43a2e6"] ;
10 -> 11 ;
12 [label="gini = 0.04\nsamples = 36\nvalue = [1, 53]", fillcolor="#3d9fe5"] ;
11 -> 12 ;
13 [label="gini = 0.32\nsamples = 6\nvalue = [2, 8]", fillcolor="#6ab6ec"] ;
11 -> 13 ;
14 [label="X[2] <= 1.5\ngini = 0.46\nsamples = 31\nvalue = [33, 19]", fillcolor="#f4caab"] ;
10 -> 14 ;
15 [label="gini = 0.49\nsamples = 25\nvalue = [23, 17]", fillcolor="#f8decb"] ;
14 -> 15 ;
16 [label="gini = 0.28\nsamples = 6\nvalue = [10, 2]", fillcolor="#ea9a61"] ;
14 -> 16 ;
17 [label="X[2] <= 0.5\ngini = 0.42\nsamples = 14\nvalue = [16, 7]", fillcolor="#f0b890"] ;
1 -> 17 ;
18 [label="gini = 0.0\nsamples = 1\nvalue = [0, 1]", fillcolor="#399de5"] ;
17 -> 18 ;
19 [label="X[2] <= 1.5\ngini = 0.4\nsamples = 13\nvalue = [16, 6]", fillcolor="#efb083"] ;
17 -> 19 ;
20 [label="gini = 0.0\nsamples = 4\nvalue = [6, 0]", fillcolor="#e58139"] ;
19 -> 20 ;
21 [label="X[0] <= 2.0\ngini = 0.47\nsamples = 9\nvalue = [10, 6]", fillcolor="#f5cdb0"] ;
19 -> 21 ;
22 [label="gini = 0.0\nsamples = 1\nvalue = [0, 4]", fillcolor="#399de5"] ;
21 -> 22 ;
23 [label="gini = 0.28\nsamples = 8\nvalue = [10, 2]", fillcolor="#ea9a61"] ;
21 -> 23 ;
24 [label="X[2] <= 0.5\ngini = 0.28\nsamples = 367\nvalue = [474, 98]", fillcolor="#ea9b62"] ;
0 -> 24 [labeldistance=2.5, labelangle=-45, headlabel="False"] ;
25 [label="X[1] <= 0.5\ngini = 0.26\nsamples = 308\nvalue = [395, 71]", fillcolor="#ea985d"] ;
24 -> 25 ;
26 [label="X[0] <= 1.5\ngini = 0.25\nsamples = 259\nvalue = [327, 55]", fillcolor="#e9965a"] ;
25 -> 26 ;
27 [label="gini = 0.45\nsamples = 51\nvalue = [47, 24]", fillcolor="#f2c19e"] ;
26 -> 27 ;
28 [label="X[0] <= 2.5\ngini = 0.18\nsamples = 208\nvalue = [280, 31]", fillcolor="#e88f4f"] ;
26 -> 28 ;
29 [label="gini = 0.19\nsamples = 44\nvalue = [51, 6]", fillcolor="#e89050"] ;
28 -> 29 ;
30 [label="gini = 0.18\nsamples = 164\nvalue = [229, 25]", fillcolor="#e88f4f"] ;
28 -> 30 ;
31 [label="X[1] <= 1.5\ngini = 0.31\nsamples = 49\nvalue = [68, 16]", fillcolor="#eb9f68"] ;
25 -> 31 ;
32 [label="X[0] <= 1.5\ngini = 0.32\nsamples = 39\nvalue = [55, 14]", fillcolor="#eca16b"] ;
31 -> 32 ;
33 [label="gini = 0.46\nsamples = 16\nvalue = [18, 10]", fillcolor="#f3c7a7"] ;
32 -> 33 ;
34 [label="gini = 0.18\nsamples = 23\nvalue = [37, 4]", fillcolor="#e88f4e"] ;
32 -> 34 ;
35 [label="X[0] <= 1.5\ngini = 0.23\nsamples = 10\nvalue = [13, 2]", fillcolor="#e99457"] ;
31 -> 35 ;
36 [label="gini = 0.0\nsamples = 1\nvalue = [0, 2]", fillcolor="#399de5"] ;
35 -> 36 ;
37 [label="gini = 0.0\nsamples = 9\nvalue = [13, 0]", fillcolor="#e58139"] ;
35 -> 37 ;
38 [label="X[1] <= 2.5\ngini = 0.38\nsamples = 59\nvalue = [79, 27]", fillcolor="#eeac7d"] ;
24 -> 38 ;
39 [label="X[1] <= 1.5\ngini = 0.46\nsamples = 40\nvalue = [48, 26]", fillcolor="#f3c5a4"] ;
38 -> 39 ;
40 [label="X[2] <= 2.5\ngini = 0.44\nsamples = 39\nvalue = [48, 23]", fillcolor="#f1bd98"] ;
39 -> 40 ;
41 [label="gini = 0.46\nsamples = 37\nvalue = [41, 23]", fillcolor="#f4c8a8"] ;
40 -> 41 ;
42 [label="gini = 0.0\nsamples = 2\nvalue = [7, 0]", fillcolor="#e58139"] ;
40 -> 42 ;
43 [label="gini = 0.0\nsamples = 1\nvalue = [0, 3]", fillcolor="#399de5"] ;
39 -> 43 ;
44 [label="X[2] <= 1.5\ngini = 0.06\nsamples = 19\nvalue = [31, 1]", fillcolor="#e6853f"] ;
38 -> 44 ;
45 [label="gini = 0.0\nsamples = 8\nvalue = [14, 0]", fillcolor="#e58139"] ;
44 -> 45 ;
46 [label="X[1] <= 4.5\ngini = 0.1\nsamples = 11\nvalue = [17, 1]", fillcolor="#e78845"] ;
44 -> 46 ;
47 [label="gini = 0.22\nsamples = 5\nvalue = [7, 1]", fillcolor="#e99355"] ;
46 -> 47 ;
48 [label="gini = 0.0\nsamples = 6\nvalue = [10, 0]", fillcolor="#e58139"] ;
46 -> 48 ;
}